//Numpy array shape [3, 3, 8, 16]
//Min -0.479724794626
//Max 0.454710543156
//Number of zeros 0

#ifndef W5_H_
#define W5_H_

#ifndef __SYNTHESIS__
conv2d_1_weight_t w5[1152];
#else
conv2d_1_weight_t w5[1152] = {-0.15797, -0.07223, -0.02989, -0.11030, -0.05503, -0.02165, 0.14311, -0.10884, 0.09348, 0.03405, -0.19012, 0.00783, -0.22019, 0.15155, -0.02171, 0.02064, -0.04070, 0.14212, 0.19922, -0.02641, -0.04600, 0.00812, 0.23801, -0.04392, 0.11907, 0.06196, -0.13236, -0.18812, -0.15774, 0.11262, -0.03862, -0.16260, -0.07940, 0.17799, -0.18563, -0.12016, -0.33464, 0.06856, -0.19836, -0.00269, 0.07066, -0.17649, 0.14141, 0.01043, -0.08510, -0.13005, -0.32302, 0.11693, 0.18746, -0.22045, 0.04911, 0.16534, 0.00999, -0.11855, -0.09064, 0.02073, -0.00539, -0.01309, 0.09818, -0.03993, 0.20982, -0.05183, 0.01895, -0.18861, 0.10404, -0.11975, 0.07903, 0.18713, 0.10746, 0.04354, -0.11609, -0.11321, -0.14533, -0.08976, -0.06523, 0.07649, 0.03153, 0.07908, 0.16131, -0.15537, -0.21580, 0.30948, 0.40099, -0.13236, 0.02092, 0.21824, 0.13888, 0.21102, 0.05675, 0.20261, -0.20849, -0.20528, -0.12791, 0.20559, -0.13922, -0.22023, -0.13657, 0.23752, -0.04422, -0.28755, -0.07449, 0.20924, 0.09775, 0.04393, -0.09350, 0.25405, -0.27851, -0.05820, -0.10521, -0.06278, 0.00961, -0.17820, 0.03567, 0.05663, 0.05339, 0.03707, 0.08268, 0.13416, 0.11376, 0.06670, -0.06000, -0.01358, -0.14837, -0.13758, -0.01659, 0.22807, 0.01943, -0.09866, -0.07412, -0.15232, -0.04023, 0.01825, -0.10061, 0.13650, 0.12913, -0.07467, 0.10682, 0.07036, -0.01843, 0.06513, -0.03869, -0.18091, -0.15189, -0.01850, -0.27067, -0.06935, -0.07163, -0.18922, 0.03587, 0.25736, 0.26258, -0.10150, 0.25301, -0.14800, -0.28817, -0.14310, -0.04403, 0.01606, -0.01063, 0.34419, -0.18863, 0.10592, -0.23873, -0.39470, 0.06864, 0.21756, -0.25477, -0.26884, 0.20503, -0.02215, -0.12478, -0.32835, -0.07054, 0.02084, -0.08687, 0.03493, -0.11459, 0.10558, -0.12952, 0.09254, -0.03937, 0.05104, -0.13454, 0.02460, 0.02672, 0.08938, -0.05707, 0.11030, 0.09958, 0.05066, 0.06300, -0.04401, 0.14134, -0.14183, 0.17689, 0.08583, -0.18566, 0.07665, -0.06668, 0.00413, -0.11147, -0.02334, 0.03707, 0.07891, 0.05649, 0.14583, -0.19479, 0.12059, 0.09638, 0.05746, -0.17470, -0.00634, -0.27072, 0.21156, 0.05884, 0.24721, 0.12197, 0.28207, -0.08539, -0.09341, -0.03949, 0.15171, 0.05519, 0.11151, 0.09171, -0.21123, -0.24759, -0.00617, -0.02380, 0.07376, 0.16416, 0.12440, 0.14540, 0.13496, -0.08525, 0.12593, -0.07764, -0.32148, 0.15658, -0.00151, 0.32064, 0.00896, 0.07992, -0.09442, 0.14359, 0.14087, 0.01318, 0.24684, -0.17047, 0.05642, -0.31010, -0.01999, 0.14934, 0.34067, -0.07915, 0.03731, 0.14924, -0.08084, -0.15686, -0.03565, 0.05259, 0.29270, -0.04231, -0.25336, 0.04660, -0.13555, -0.24628, 0.06449, -0.04827, -0.30453, 0.27249, 0.00768, -0.13034, 0.10257, -0.12022, 0.14078, 0.26691, 0.29977, 0.28699, -0.03909, 0.19893, 0.05701, -0.32832, -0.29129, 0.14261, -0.05149, 0.04349, 0.04098, -0.24153, -0.08841, 0.10249, -0.06386, -0.19333, -0.12354, -0.11504, -0.25267, 0.09297, -0.23955, -0.00074, -0.18438, 0.20810, -0.13852, 0.22634, -0.00533, -0.06482, 0.00007, 0.02220, -0.14862, -0.03013, -0.20225, -0.09963, 0.05332, 0.11802, -0.04346, 0.09461, 0.21248, -0.14741, 0.12360, -0.24796, 0.11528, 0.05742, 0.11443, -0.06484, -0.27107, -0.05197, 0.08262, 0.00941, 0.05005, -0.04082, 0.06265, 0.05418, 0.03561, -0.13653, 0.25695, -0.16733, -0.04094, 0.15207, -0.20369, -0.00349, 0.01334, -0.06096, 0.36862, -0.15371, -0.09829, 0.20756, -0.05814, -0.19611, -0.06708, -0.13822, -0.23374, 0.17224, 0.00681, -0.16458, -0.25695, -0.12305, 0.17903, -0.14848, 0.12539, -0.23376, -0.17002, 0.15229, -0.16811, -0.26816, 0.10621, 0.24891, -0.12077, 0.13846, 0.16745, 0.40151, -0.18345, -0.26168, -0.15713, 0.09526, 0.30903, 0.03958, -0.06801, -0.10978, 0.22247, -0.16854, -0.13096, -0.06832, 0.08936, -0.08498, 0.09723, 0.19409, -0.11719, 0.16361, 0.09834, -0.02374, 0.22289, 0.13388, 0.09188, -0.21064, 0.15666, -0.05534, 0.10967, -0.21632, 0.12290, 0.08584, -0.24148, 0.10660, -0.00038, 0.19694, 0.00898, 0.07089, -0.00191, 0.19178, 0.04769, 0.14048, 0.22613, -0.17190, -0.01820, -0.16358, -0.05741, 0.13713, -0.07512, 0.21726, -0.07488, -0.02604, -0.12116, -0.06437, 0.30405, -0.29688, -0.03786, 0.31073, 0.07615, 0.01716, -0.16310, 0.00398, 0.15901, -0.13544, -0.11707, -0.07590, 0.07458, -0.12738, -0.03211, 0.13119, -0.06407, -0.13421, -0.15417, -0.13093, -0.18815, -0.01447, 0.02489, -0.02445, -0.19413, 0.04241, 0.01509, -0.01368, -0.04523, -0.17302, -0.02685, -0.18130, 0.09480, 0.10376, -0.08891, -0.16152, 0.01545, 0.15572, -0.04504, 0.19312, -0.13960, 0.14047, -0.16391, -0.15998, 0.22376, 0.42116, -0.13800, -0.05519, 0.17851, 0.27223, 0.02473, -0.10112, 0.22186, -0.00197, -0.03509, -0.15576, 0.21491, 0.00362, -0.11809, 0.22259, 0.00038, 0.03686, -0.12069, -0.06627, 0.24485, -0.02673, 0.03348, 0.01893, 0.06780, -0.09784, -0.15561, 0.06350, -0.01043, -0.12618, 0.02553, -0.09267, -0.15453, 0.19097, 0.08659, 0.16169, 0.12576, 0.08554, 0.03201, -0.11545, -0.05257, 0.08155, 0.04026, 0.06118, 0.21784, 0.21150, -0.06000, 0.11158, 0.17227, -0.08472, 0.09045, -0.08870, 0.08127, 0.01121, -0.07640, -0.11884, -0.01972, -0.02435, -0.03034, 0.17433, 0.16913, -0.05030, -0.09447, -0.19869, 0.01474, -0.14593, 0.10167, 0.21731, 0.31332, 0.24529, 0.13973, 0.06130, 0.17130, -0.25527, -0.06021, -0.18021, -0.23864, 0.14239, 0.24821, 0.39830, -0.06132, -0.27121, -0.17767, -0.05676, 0.21490, -0.06691, -0.23919, 0.10685, -0.02172, -0.06720, -0.09231, -0.05234, 0.03750, 0.16127, 0.04349, -0.06354, 0.02839, 0.18899, -0.07926, 0.02611, -0.23262, -0.09568, -0.05375, 0.14777, -0.09880, 0.17923, -0.05258, 0.18144, -0.13608, -0.25503, -0.17509, -0.11390, 0.13152, -0.00118, -0.04909, 0.02626, -0.12355, -0.08976, 0.14049, 0.16035, -0.00618, 0.11918, 0.08086, 0.22033, -0.02189, -0.06022, 0.15893, 0.20484, 0.12521, -0.17359, 0.01803, 0.02532, 0.17736, -0.13428, 0.22050, -0.03789, 0.19021, 0.14545, 0.06849, 0.15355, 0.02318, 0.18057, 0.09544, -0.03922, 0.11016, 0.06478, -0.00819, 0.02012, 0.16379, -0.12578, 0.04195, -0.07626, -0.10415, -0.23629, -0.13441, 0.13581, 0.07328, 0.04650, -0.10388, -0.05124, -0.13780, -0.19151, -0.01921, 0.14384, -0.03417, -0.05179, 0.14103, 0.02143, 0.25645, -0.02950, 0.01206, -0.12074, 0.06461, -0.04684, -0.05737, 0.00507, -0.22599, -0.04961, 0.02365, -0.07909, 0.19685, -0.09332, 0.00486, 0.20062, -0.14224, 0.14894, 0.09152, 0.08918, 0.01366, 0.18002, 0.15543, 0.07972, -0.10862, 0.04226, 0.33533, 0.28553, 0.34885, 0.24709, 0.06776, -0.02041, -0.12686, -0.26078, -0.10036, -0.12315, 0.03556, 0.23127, -0.03048, 0.05404, -0.33123, -0.26367, 0.16147, -0.02265, 0.02498, -0.20945, -0.32381, 0.20989, -0.23791, 0.01492, -0.11908, 0.27455, -0.19807, 0.03559, 0.18767, 0.10966, 0.05280, -0.03479, -0.22990, 0.06257, -0.09611, 0.08142, -0.14106, 0.18038, 0.04722, -0.02488, 0.17755, -0.10601, -0.12671, -0.16405, 0.06567, -0.12148, 0.17924, -0.11940, 0.01167, 0.00533, -0.03708, 0.15861, 0.15434, -0.02393, 0.12118, 0.10064, 0.14785, -0.22897, -0.00813, 0.08185, 0.17304, 0.19147, -0.01462, 0.02324, 0.06512, -0.10357, 0.27111, -0.04605, -0.07812, -0.03302, -0.14834, -0.11878, -0.38224, 0.16889, 0.01884, 0.22288, -0.12349, 0.29862, -0.32766, 0.21387, 0.15140, -0.08126, -0.06450, -0.09263, -0.27136, 0.06530, -0.26020, -0.15606, -0.10168, 0.11911, -0.16958, 0.03925, 0.13405, 0.26142, -0.15199, -0.07896, 0.06318, -0.12162, 0.26539, 0.02845, 0.06598, -0.24648, 0.00303, -0.00451, -0.36008, -0.27427, 0.10048, -0.05042, -0.03313, -0.12299, 0.08851, 0.05396, -0.11577, 0.15478, 0.03211, -0.00819, -0.10484, -0.20958, 0.01020, 0.24576, 0.13550, -0.09651, 0.27889, 0.15481, -0.13326, -0.06138, 0.22781, 0.05785, -0.00948, 0.20165, 0.14119, 0.15691, 0.01157, -0.01011, 0.26262, -0.03272, -0.18122, -0.00416, -0.04962, 0.06402, 0.01280, 0.25998, 0.14146, 0.01378, 0.00880, 0.21232, 0.12987, -0.25606, 0.01974, -0.05182, 0.06200, -0.00876, -0.17559, -0.12601, 0.22058, 0.02207, 0.15092, -0.01436, 0.09669, 0.08021, 0.03265, -0.19507, 0.06008, -0.09066, -0.09751, -0.10614, 0.07547, 0.06407, -0.12443, 0.25487, 0.05554, 0.05343, 0.00488, 0.00256, 0.01054, 0.14197, 0.08685, -0.16076, -0.04706, -0.08279, -0.00662, 0.15010, 0.04097, -0.09364, 0.03740, -0.00160, 0.00858, 0.10971, -0.10487, 0.14917, -0.16935, 0.08011, -0.11609, 0.08772, 0.10841, 0.16405, 0.06974, -0.22178, 0.14143, 0.03697, 0.29624, 0.14581, 0.27261, 0.01727, -0.30936, -0.07760, 0.09035, 0.14005, 0.17018, 0.02178, 0.03920, 0.13687, 0.24460, 0.00750, 0.13548, 0.16970, -0.07222, 0.02620, 0.07769, -0.00532, -0.21764, -0.15726, -0.13283, 0.05060, 0.14167, -0.00005, 0.08214, 0.18942, -0.14950, -0.02235, -0.22590, 0.28713, -0.02065, 0.01100, -0.16129, 0.19159, -0.35982, 0.16522, 0.25480, 0.01130, -0.06134, 0.20433, 0.15651, -0.12972, 0.03701, -0.02813, -0.06287, 0.45471, 0.05441, -0.05278, 0.28388, -0.10526, 0.13333, 0.04482, 0.09399, 0.06403, 0.40225, 0.20014, 0.15320, 0.05226, 0.04413, -0.22317, 0.06311, -0.18217, -0.24822, 0.14456, 0.03448, 0.13038, 0.23081, 0.25312, 0.00226, -0.14293, -0.16558, -0.06887, -0.02185, 0.01554, -0.10282, -0.06781, -0.21574, 0.02567, -0.12619, -0.08338, 0.26616, -0.01880, 0.01840, 0.03278, -0.04614, 0.07445, -0.13562, 0.07815, -0.00860, -0.02111, -0.08747, 0.11930, -0.12038, 0.06102, -0.00844, 0.05298, -0.07807, -0.07982, -0.15794, -0.12243, 0.05207, 0.13329, -0.15013, 0.01686, -0.15044, 0.19195, -0.20633, 0.03570, -0.06790, -0.19320, 0.09659, 0.26290, -0.26926, -0.18301, 0.00556, 0.09654, -0.02320, 0.01607, -0.00904, 0.28683, -0.10843, -0.12735, 0.27959, -0.06719, 0.23129, 0.03255, 0.02741, -0.00356, 0.14477, 0.01369, -0.13069, 0.06838, 0.18531, 0.00274, 0.14279, 0.17040, -0.07073, 0.05548, 0.07770, -0.23111, -0.00888, 0.22767, -0.10944, 0.01185, 0.06954, -0.03005, -0.18609, -0.00962, 0.02246, -0.00617, 0.20900, 0.09230, 0.00383, -0.02851, 0.24207, -0.05968, 0.03531, 0.27419, -0.07175, 0.02615, 0.07785, -0.10241, 0.12810, 0.26297, 0.18034, 0.21377, -0.05789, -0.00575, 0.02361, -0.15175, -0.07674, -0.12755, -0.19277, 0.41025, 0.03100, 0.19636, 0.23677, -0.04587, 0.19534, 0.10986, -0.12905, -0.11751, 0.28635, 0.20611, 0.04656, 0.02451, 0.08764, -0.20908, -0.13479, -0.47972, -0.21337, -0.12372, -0.02551, 0.42055, 0.00309, 0.28350, -0.46514, -0.16588, -0.09389, -0.29159, -0.14358, -0.28274, -0.27479, -0.19434, -0.42470, 0.01974, -0.40653, 0.16893, -0.04815, 0.00863, 0.08487, 0.09487, -0.03171, -0.08305, -0.06733, 0.07801, -0.13063, 0.17921, 0.07411, 0.03766, 0.03839, 0.14598, 0.19381, -0.16521, -0.23717, -0.01042, 0.01481, -0.09505, 0.08251, -0.00062, 0.16961, 0.20605, 0.12343, 0.23288, 0.12356, 0.18993, -0.11903, 0.09521, 0.14531, -0.23239, -0.04088, 0.18406, -0.07329, 0.13343, 0.20811, -0.10113, 0.11806, 0.05404, -0.06141, -0.20595, -0.01433, -0.06617, -0.20583, 0.18156, -0.09862, -0.15776, 0.40985, 0.09524, 0.15337, 0.21688, 0.05838, 0.22375, 0.02233, 0.08226, -0.01627, 0.00166, -0.12244, 0.18672, -0.12848, 0.23034, -0.26310, 0.15150, -0.01996, 0.10159, 0.04925, 0.04768, -0.08656, -0.32546, -0.10218, 0.04356, -0.09951, -0.11305, 0.16568, 0.09237, 0.04019, 0.32871, 0.05712, -0.26158, 0.35372, 0.15754, 0.15230};

#endif

#endif
